{"type":"NeuralNetwork","sizes":[5,10,5,1],"layers":[{"weights":[],"biases":[]},{"weights":[[0.7556043863296509,0.8910610675811768,0.6332408785820007,-1.5594607591629028,2.078113555908203],[0.963595986366272,0.849882960319519,0.8388723134994507,-1.7594937086105347,2.097076892852783],[1.7800360918045044,2.534245491027832,1.784542441368103,-3.5510480403900146,4.804978370666504],[0.3215042054653168,0.24227669835090637,0.16659995913505554,-0.6915448307991028,0.861230731010437],[2.2770907878875732,2.9517440795898438,2.1280698776245117,-4.357760429382324,5.714158058166504],[-1.6492140293121338,-2.0686373710632324,-1.4189916849136353,3.0753610134124756,-3.958112955093384],[0.44782954454421997,0.4465583264827728,0.3407926857471466,-1.2264833450317383,1.3127086162567139],[0.6875299215316772,0.9627530574798584,0.4880449175834656,-1.5178937911987305,2.056173324584961],[-0.46748584508895874,-0.4276285469532013,-0.20602533221244812,0.7617276906967163,-0.9242287874221802],[0.31939199566841125,0.5772873163223267,0.20074644684791565,-0.9920274019241333,1.059946060180664]],"biases":[-0.9946369528770447,-0.9695610404014587,-2.128953695297241,-0.7410837411880493,-2.376934289932251,1.6775118112564087,-0.6141635775566101,-0.9681172966957092,0.17209549248218536,-0.7442719340324402]},{"weights":[[-0.9365008473396301,-1.1103394031524658,-2.729729413986206,-0.3767220973968506,-3.322808027267456,2.854536533355713,-0.4268849790096283,-0.861615002155304,1.0491732358932495,-0.5090203881263733],[-1.3615138530731201,-1.5096584558486938,-4.117957592010498,-0.12433735281229019,-4.971909046173096,4.58907413482666,-0.7200810313224792,-1.322176456451416,1.4335817098617554,-0.38600975275039673],[-0.7217060923576355,-0.5215493440628052,-1.2158761024475098,-0.3878141939640045,-1.5598411560058594,1.1259427070617676,-0.17949505150318146,-0.49807557463645935,0.26539546251296997,-0.4590603709220886],[-0.5320833921432495,-0.5090532898902893,-1.35108482837677,-0.2055491954088211,-1.8021397590637207,1.2233563661575317,-0.5185903310775757,-0.7346987724304199,0.2790300250053406,-0.3617161512374878],[-0.47610634565353394,-0.30921196937561035,-0.7581374645233154,-0.2757008969783783,-0.8595380187034607,0.4206782877445221,-0.47190454602241516,-0.5920478701591492,-0.2653643786907196,-0.30397412180900574]],"biases":[1.889930248260498,2.883315086364746,0.3240949511528015,0.6201480627059937,-0.3644518554210663]},{"weights":[[-4.866345405578613,-7.611698627471924,-2.1229310035705566,-2.392029047012329,-1.1038531064987183]],"biases":[6.173131942749023]}],"inputLookup":{"heartRate":0,"bloodPressureSystolic":1,"bloodPressureDiastolic":2,"oxygenSaturation":3,"temperature":4},"inputLookupLength":5,"outputLookup":{"highRisk":0},"outputLookupLength":1,"options":{"inputSize":0,"outputSize":0,"binaryThresh":0.5,"hiddenLayers":[10,5]},"trainOpts":{"activation":"sigmoid","iterations":20000,"errorThresh":0.005,"log":false,"logPeriod":10,"leakyReluAlpha":0.01,"learningRate":0.3,"momentum":0.1,"callbackPeriod":10,"timeout":"Infinity","beta1":0.9,"beta2":0.999,"epsilon":1e-8}}