{"type":"NeuralNetwork","sizes":[5,10,5,1],"layers":[{"weights":[],"biases":[]},{"weights":[[9.536215782165527,6.2933349609375,9.43270492553711,-10.675994873046875,-0.7627028226852417],[6.440490245819092,4.365185260772705,6.586239814758301,-7.507696151733398,-0.3146493434906006],[3.2480013370513916,2.0078883171081543,3.2045657634735107,-4.378870487213135,-0.09483376145362854],[6.542724132537842,4.400911331176758,6.649533271789551,-7.797832489013672,-0.14111661911010742],[10.734882354736328,7.068782806396484,11.089393615722656,-12.192747116088867,-0.6860501766204834],[8.130270957946777,5.3355393409729,7.996619701385498,-9.353875160217285,-0.5049008727073669],[0.29012030363082886,-0.20341181755065918,-0.0792730301618576,-1.6072616577148438,0.31871506571769714],[-6.932737350463867,-4.795230865478516,-7.123394012451172,7.0701165199279785,1.0935652256011963],[-5.5406599044799805,-3.898521661758423,-5.6385321617126465,5.50114107131958,0.5897243618965149],[4.928428649902344,3.2526111602783203,4.6253862380981445,-6.0528740882873535,0.000048027482989709824]],"biases":[-3.9770517349243164,-3.1483922004699707,-1.6982413530349731,-3.050717353820801,-4.5093793869018555,-3.3628084659576416,-0.8833064436912537,2.4524738788604736,1.8485050201416016,-2.3261516094207764]},{"weights":[[-3.3311760425567627,-2.4566755294799805,-1.4228352308273315,-2.3679139614105225,-3.7694246768951416,-2.8968698978424072,-0.04881545156240463,2.9930901527404785,2.424293279647827,-1.8364266157150269],[-2.958995819091797,-2.2651238441467285,-1.2209956645965576,-2.2671496868133545,-3.322429895401001,-2.671024799346924,-0.33764728903770447,2.498720645904541,2.1448476314544678,-1.74856436252594],[-1.7545166015625,-1.252516508102417,-0.6328814625740051,-1.449164867401123,-1.8655186891555786,-1.293961524963379,-0.05367780476808548,1.2505983114242554,1.2504949569702148,-1.0600066184997559],[-1.575090765953064,-0.9827094078063965,-0.7963521480560303,-0.9306588172912598,-1.6070901155471802,-1.1313621997833252,-0.2135584056377411,0.9349508285522461,1.0000486373901367,-0.8080160021781921],[-3.118805408477783,-2.2797024250030518,-1.519953727722168,-2.377739429473877,-3.6188204288482666,-2.893444299697876,-0.2003648579120636,2.859328031539917,2.2459871768951416,-1.9341380596160889]],"biases":[2.975879192352295,2.771594762802124,1.3729193210601807,0.7344540357589722,2.9578089714050293]},{"weights":[[-5.722531795501709,-4.881457805633545,-2.6801276206970215,-2.4105916023254395,-5.466726779937744]],"biases":[5.564765930175781]}],"inputLookup":{"heartRate":0,"bloodPressureSystolic":1,"bloodPressureDiastolic":2,"oxygenSaturation":3,"temperature":4},"inputLookupLength":5,"outputLookup":{"highRisk":0},"outputLookupLength":1,"options":{"inputSize":0,"outputSize":0,"binaryThresh":0.5,"hiddenLayers":[10,5]},"trainOpts":{"activation":"sigmoid","iterations":20000,"errorThresh":0.005,"log":false,"logPeriod":10,"leakyReluAlpha":0.01,"learningRate":0.3,"momentum":0.1,"callbackPeriod":10,"timeout":"Infinity","beta1":0.9,"beta2":0.999,"epsilon":1e-8}}