{"type":"NeuralNetwork","sizes":[5,10,5,1],"layers":[{"weights":[],"biases":[]},{"weights":[[-11.644328117370605,-7.9469380378723145,-11.85170841217041,12.451493263244629,1.5160467624664307],[-9.087454795837402,-6.126230716705322,-9.213356018066406,9.280756950378418,1.014902114868164],[1.3584054708480835,0.5148246884346008,0.9114155173301697,-2.121175765991211,-0.43527400493621826],[-6.228793144226074,-4.39993143081665,-6.526181697845459,6.264517307281494,0.011201727204024792],[-5.576176166534424,-4.158712387084961,-5.9248270988464355,5.750662803649902,0.6117622256278992],[2.370957851409912,1.2846283912658691,2.2279322147369385,-3.0040359497070312,-1.0723087787628174],[-12.411284446716309,-8.328752517700195,-12.618389129638672,12.962553977966309,1.7557662725448608],[-2.663757801055908,-2.172715902328491,-2.788875102996826,2.191535234451294,-0.07995525002479553],[-4.819209098815918,-3.5971662998199463,-5.085402965545654,4.799970626831055,-0.04211511090397835],[-1.1282625198364258,-1.0639737844467163,-1.511182188987732,0.1732824295759201,-0.4681975245475769]],"biases":[3.853752374649048,3.0559356212615967,-0.9054280519485474,2.0732264518737793,1.5788272619247437,-1.085339069366455,4.344590187072754,0.2462037056684494,1.357248306274414,-0.4734583795070648]},{"weights":[[-3.2984535694122314,-2.6366806030273438,0.41440778970718384,-1.7725633382797241,-1.637513279914856,0.8942678570747375,-3.381484270095825,-1.1563388109207153,-1.7567964792251587,-0.33252978324890137],[-4.791921615600586,-3.9428374767303467,1.1107463836669922,-3.0126442909240723,-2.7349743843078613,1.37895929813385,-4.98069429397583,-1.385553240776062,-2.405482530593872,-0.48631367087364197],[-4.272580146789551,-3.4206361770629883,0.8495402932167053,-2.5660347938537598,-2.3923213481903076,1.3728642463684082,-4.407581329345703,-1.164436936378479,-2.075335741043091,-0.5931795239448547],[-1.5354734659194946,-1.2130275964736938,0.2059197723865509,-1.2162442207336426,-1.1654548645019531,0.14053352177143097,-1.9419838190078735,-0.7394157648086548,-0.9074169397354126,-0.4634121060371399],[-1.3560093641281128,-0.9407702088356018,-0.008642381988465786,-1.0345503091812134,-0.7986043691635132,0.0429815948009491,-1.6160131692886353,-0.6442925930023193,-0.6139554381370544,-0.4059218168258667]],"biases":[2.4057703018188477,4.075743198394775,4.259589672088623,0.5834335088729858,0.12139205634593964]},{"weights":[[4.330458164215088,7.169518947601318,5.567718982696533,2.45845103263855,2.0314249992370605]],"biases":[-6.626965045928955]}],"inputLookup":{"heartRate":0,"bloodPressureSystolic":1,"bloodPressureDiastolic":2,"oxygenSaturation":3,"temperature":4},"inputLookupLength":5,"outputLookup":{"highRisk":0},"outputLookupLength":1,"options":{"inputSize":0,"outputSize":0,"binaryThresh":0.5,"hiddenLayers":[10,5]},"trainOpts":{"activation":"sigmoid","iterations":20000,"errorThresh":0.005,"log":false,"logPeriod":10,"leakyReluAlpha":0.01,"learningRate":0.3,"momentum":0.1,"callbackPeriod":10,"timeout":"Infinity","beta1":0.9,"beta2":0.999,"epsilon":1e-8}}