{"type":"NeuralNetwork","sizes":[5,10,5,1],"layers":[{"weights":[],"biases":[]},{"weights":[[-3.125765323638916,-2.048016309738159,-3.1754987239837646,2.628566026687622,0.3320739269256592],[-8.314417839050293,-5.710295677185059,-8.4022855758667,8.733928680419922,0.6627436876296997],[2.6108546257019043,1.6905038356781006,2.663503408432007,-3.735426425933838,-0.16730503737926483],[13.467497825622559,8.998579978942871,13.45703125,-14.868719100952148,-1.1407862901687622],[1.7310460805892944,1.130084753036499,1.798851728439331,-3.1136796474456787,0.3257296085357666],[6.768312454223633,4.633755207061768,6.769714832305908,-8.112313270568848,-0.29087403416633606],[3.6987950801849365,2.41152286529541,3.6428089141845703,-4.81995153427124,0.26099371910095215],[1.8676297664642334,0.9489282369613647,1.6340121030807495,-2.9518446922302246,0.29013770818710327],[5.613654613494873,4.039735794067383,5.7647480964660645,-6.906027793884277,-0.23203830420970917],[9.912728309631348,6.811276912689209,10.27314567565918,-11.453006744384766,-0.6345580220222473]],"biases":[0.5680281519889832,3.0286381244659424,-1.567262053489685,-5.487391471862793,-1.4361951351165771,-2.967512845993042,-2.147761583328247,-1.3873580694198608,-2.7734475135803223,-4.265637397766113]},{"weights":[[1.269431233406067,2.665886878967285,-0.9811815023422241,-3.7008063793182373,-0.7986763119697571,-2.2703328132629395,-1.0469326972961426,-0.7869704961776733,-1.79011869430542,-2.848205089569092],[1.6777234077453613,3.559443235397339,-1.2918437719345093,-4.835575103759766,-1.1755964756011963,-2.6519434452056885,-1.8055001497268677,-0.7916619181632996,-2.2750084400177,-3.7173101902008057],[0.29074230790138245,0.48893487453460693,-0.6734678745269775,-1.0928863286972046,-0.4423179626464844,-0.8878516554832458,-0.7767373919487,-0.6476659774780273,-0.7942509055137634,-0.9688512086868286],[1.2523212432861328,2.6298553943634033,-1.0140650272369385,-3.428964614868164,-0.6189022660255432,-1.8668437004089355,-1.1288812160491943,-0.7380571365356445,-1.8690789937973022,-2.893350124359131],[1.2153764963150024,2.819467067718506,-1.0948907136917114,-3.7569143772125244,-0.7445776462554932,-2.004068374633789,-1.4317797422409058,-0.9127504825592041,-1.7824842929840088,-2.796309232711792]],"biases":[2.2504873275756836,3.1408307552337646,0.1668682098388672,2.2189581394195557,2.2127890586853027]},{"weights":[[-4.308531284332275,-6.055080890655518,-1.779410481452942,-3.964207172393799,-4.414974689483643]],"biases":[5.526620388031006]}],"inputLookup":{"heartRate":0,"bloodPressureSystolic":1,"bloodPressureDiastolic":2,"oxygenSaturation":3,"temperature":4},"inputLookupLength":5,"outputLookup":{"highRisk":0},"outputLookupLength":1,"options":{"inputSize":0,"outputSize":0,"binaryThresh":0.5,"hiddenLayers":[10,5]},"trainOpts":{"activation":"sigmoid","iterations":20000,"errorThresh":0.005,"log":false,"logPeriod":10,"leakyReluAlpha":0.01,"learningRate":0.3,"momentum":0.1,"callbackPeriod":10,"timeout":"Infinity","beta1":0.9,"beta2":0.999,"epsilon":1e-8}}