{"type":"NeuralNetwork","sizes":[5,10,5,1],"layers":[{"weights":[],"biases":[]},{"weights":[[-4.656528472900391,-3.341123342514038,-5.09063720703125,4.586418628692627,-0.19091561436653137],[-10.719206809997559,-6.815128803253174,-11.638534545898438,11.501333236694336,0.634423017501831],[-5.100658416748047,-3.4449243545532227,-5.399397850036621,4.965462684631348,-0.055912841111421585],[-3.595360040664673,-2.73512864112854,-4.229259014129639,3.3171160221099854,-0.2095414251089096],[-9.68114948272705,-6.073502063751221,-10.636061668395996,10.429733276367188,0.3900635242462158],[-2.4449784755706787,-1.9788906574249268,-2.640146017074585,1.6530954837799072,-0.687213659286499],[-2.6060214042663574,-1.9009931087493896,-3.057343006134033,2.0363128185272217,-0.2823753356933594],[-6.092194557189941,-3.7134368419647217,-6.541219234466553,6.01616907119751,0.0014350973069667816],[-4.1931657791137695,-3.072068691253662,-4.6279377937316895,3.8782460689544678,-0.38882723450660706],[-9.60752010345459,-6.133234024047852,-10.095468521118164,9.916460037231445,0.6617687344551086]],"biases":[1.3489969968795776,3.852137327194214,1.444151520729065,1.015496850013733,3.36224102973938,0.3363218307495117,0.3200184106826782,1.8333253860473633,1.322428822517395,3.4309585094451904]},{"weights":[[-1.7825533151626587,-3.3638226985931396,-1.6922951936721802,-1.2305959463119507,-3.0865089893341064,-1.0480637550354004,-1.0931355953216553,-2.1286585330963135,-1.6490814685821533,-3.0591471195220947],[-1.2396798133850098,-2.4296810626983643,-1.516943335533142,-1.1740342378616333,-2.3931572437286377,-0.6357075572013855,-0.9932072162628174,-1.5466893911361694,-1.2901982069015503,-2.3850512504577637],[-1.919005274772644,-3.7199575901031494,-2.144428014755249,-1.7582197189331055,-3.637575387954712,-1.2006231546401978,-1.1656686067581177,-2.348289728164673,-1.6544824838638306,-3.4440536499023438],[-1.2971159219741821,-2.5707106590270996,-1.3734138011932373,-1.2040214538574219,-2.21193790435791,-0.649548351764679,-0.8096132874488831,-1.4259427785873413,-1.2870056629180908,-2.1486220359802246],[-1.7420448064804077,-3.2088186740875244,-1.7224878072738647,-1.3682881593704224,-2.7324907779693604,-1.0063700675964355,-0.9689798355102539,-2.0912845134735107,-1.5975093841552734,-2.685614585876465]],"biases":[3.2975807189941406,2.2153682708740234,3.97527813911438,2.0620484352111816,3.0165092945098877]},{"weights":[[5.244026184082031,4.057751178741455,5.988326549530029,3.9281792640686035,4.917688369750977]],"biases":[-6.848760604858398]}],"inputLookup":{"heartRate":0,"bloodPressureSystolic":1,"bloodPressureDiastolic":2,"oxygenSaturation":3,"temperature":4},"inputLookupLength":5,"outputLookup":{"highRisk":0},"outputLookupLength":1,"options":{"inputSize":0,"outputSize":0,"binaryThresh":0.5,"hiddenLayers":[10,5]},"trainOpts":{"activation":"sigmoid","iterations":20000,"errorThresh":0.005,"log":false,"logPeriod":10,"leakyReluAlpha":0.01,"learningRate":0.3,"momentum":0.1,"callbackPeriod":10,"timeout":"Infinity","beta1":0.9,"beta2":0.999,"epsilon":1e-8}}