{"type":"NeuralNetwork","sizes":[5,10,5,1],"layers":[{"weights":[],"biases":[]},{"weights":[[1.0747259855270386,1.3964512348175049,0.8527677059173584,-1.9594924449920654,2.699843645095825],[-1.15036141872406,-1.5376925468444824,-0.9251633286476135,1.6933413743972778,-2.7156503200531006],[-2.2429277896881104,-2.6530990600585938,-1.8102024793624878,3.8929781913757324,-5.198279857635498],[0.4714498221874237,0.36674967408180237,0.11773358285427094,-0.7664608955383301,0.8626090884208679],[1.374224066734314,1.6698195934295654,1.0260639190673828,-2.5827596187591553,3.4203274250030518],[0.045721519738435745,0.05830002948641777,0.13873866200447083,-0.6375893950462341,0.005599173717200756],[1.8846710920333862,2.1974592208862305,1.4511178731918335,-3.3081486225128174,4.438014030456543],[1.514447569847107,1.703720211982727,1.3791147470474243,-2.5659139156341553,3.720991373062134],[0.7803745865821838,1.0813006162643433,0.8447937369346619,-1.7518657445907593,2.08209228515625],[-0.8670918941497803,-1.2917585372924805,-0.9032559394836426,1.6296100616455078,-2.624293804168701]],"biases":[-1.2103309631347656,1.1956734657287598,1.9645308256149292,-0.6825883388519287,-1.256824254989624,-0.38198915123939514,-1.7350651025772095,-1.6642162799835205,-0.8976699113845825,0.8869851231575012]},{"weights":[[-0.5032835006713867,-0.11062198132276535,-0.27043595910072327,-0.4346965551376343,-0.1806199550628662,-0.30883127450942993,-0.37182673811912537,-0.28878656029701233,-0.3389727771282196,-0.3870650827884674],[-1.2946909666061401,1.8019901514053345,3.202472448348999,-0.5659404397010803,-1.7074439525604248,-0.010846246965229511,-2.3212738037109375,-1.9851652383804321,-1.2369879484176636,1.6641602516174316],[-1.8547804355621338,2.4049551486968994,4.157528877258301,-0.3694724440574646,-2.360487937927246,0.0914602130651474,-3.1895079612731934,-2.6202127933502197,-1.1898937225341797,2.2036728858947754],[0.8372635841369629,-1.0191494226455688,-2.0232551097869873,0.12438420951366425,1.3085018396377563,-0.05346416309475899,1.4298596382141113,1.3475501537322998,0.8701119422912598,-0.9728772640228271],[-1.3493692874908447,1.342698097229004,2.8711016178131104,-0.41916513442993164,-1.4910454750061035,-0.1890798956155777,-2.2027037143707275,-1.5247117280960083,-1.03143310546875,1.2729403972625732]],"biases":[-0.44607993960380554,0.9220970273017883,1.2603553533554077,-0.3797811269760132,0.9336281418800354]},{"weights":[[-0.11153526604175568,-4.748187065124512,-6.383845329284668,4.200653076171875,-4.107260704040527]],"biases":[3.8355441093444824]}],"inputLookup":{"heartRate":0,"bloodPressureSystolic":1,"bloodPressureDiastolic":2,"oxygenSaturation":3,"temperature":4},"inputLookupLength":5,"outputLookup":{"highRisk":0},"outputLookupLength":1,"options":{"inputSize":0,"outputSize":0,"binaryThresh":0.5,"hiddenLayers":[10,5]},"trainOpts":{"activation":"sigmoid","iterations":20000,"errorThresh":0.005,"log":false,"logPeriod":10,"leakyReluAlpha":0.01,"learningRate":0.3,"momentum":0.1,"callbackPeriod":10,"timeout":"Infinity","beta1":0.9,"beta2":0.999,"epsilon":1e-8}}