{"type":"NeuralNetwork","sizes":[5,10,5,1],"layers":[{"weights":[],"biases":[]},{"weights":[[1.2983744144439697,0.890399694442749,1.0505965948104858,-2.7926840782165527,0.22420194745063782],[-4.6490702629089355,-3.1422581672668457,-4.488526821136475,4.312482833862305,0.05821266770362854],[-2.945059299468994,-2.00034236907959,-3.0085887908935547,2.4531564712524414,0.4188985526561737],[12.090384483337402,8.176348686218262,12.223624229431152,-13.68724250793457,-1.5052950382232666],[12.903098106384277,8.65990924835205,12.556784629821777,-14.345267295837402,-1.4069565534591675],[-1.3754457235336304,-1.1350157260894775,-1.3895882368087769,0.35630857944488525,-0.16882570087909698],[-1.240270733833313,-1.1314502954483032,-1.1265696287155151,0.15731079876422882,-0.051221814006567],[-9.680756568908691,-6.616323471069336,-9.306838989257812,10.106952667236328,0.7026252746582031],[6.937508583068848,4.621973037719727,6.625322341918945,-8.108124732971191,-0.6220155954360962],[-0.8287757635116577,-0.9651427865028381,-0.971485435962677,-0.2843047082424164,-0.2715252637863159]],"biases":[-1.261196255683899,1.2794837951660156,0.3718063533306122,-4.698246002197266,-4.969404697418213,-0.40933433175086975,-0.5611676573753357,3.308730363845825,-2.8925681114196777,-0.6717327833175659]},{"weights":[[-0.367824912071228,-0.03244824707508087,0.004435345530509949,-1.1434228420257568,-1.05696439743042,-0.23677214980125427,-0.13162417709827423,0.06749296188354492,-0.5686824321746826,-0.19005466997623444],[-1.2123843431472778,3.4307219982147217,2.5196197032928467,-6.175856590270996,-6.4545817375183105,1.2476109266281128,1.1013448238372803,5.943542957305908,-3.8600070476531982,0.7701815366744995],[-0.6170861721038818,0.1643972247838974,0.05165421590209007,-1.1567661762237549,-1.50157630443573,-0.045951515436172485,-0.012238552793860435,0.42832255363464355,-0.8703269362449646,-0.3053518831729889],[-0.5219343900680542,0.9557180404663086,0.5475673675537109,-2.6375210285186768,-2.641481399536133,0.22384309768676758,0.18597984313964844,2.1806938648223877,-1.7043726444244385,0.053224287927150726],[-0.1943388432264328,-0.5961833596229553,-0.18818774819374084,0.09560126066207886,-0.0022324377205222845,-0.4142736792564392,-0.334428608417511,-0.7569413185119629,-0.11603327095508575,-0.4195285141468048]],"biases":[-0.5107682347297668,2.502981662750244,-0.14447176456451416,0.7254133224487305,-0.9021016359329224]},{"weights":[[-1.128143310546875,-7.870048999786377,-1.5836595296859741,-3.51338791847229,0.4744531214237213]],"biases":[4.8968729972839355]}],"inputLookup":{"heartRate":0,"bloodPressureSystolic":1,"bloodPressureDiastolic":2,"oxygenSaturation":3,"temperature":4},"inputLookupLength":5,"outputLookup":{"highRisk":0},"outputLookupLength":1,"options":{"inputSize":0,"outputSize":0,"binaryThresh":0.5,"hiddenLayers":[10,5]},"trainOpts":{"activation":"sigmoid","iterations":20000,"errorThresh":0.005,"log":false,"logPeriod":10,"leakyReluAlpha":0.01,"learningRate":0.3,"momentum":0.1,"callbackPeriod":10,"timeout":"Infinity","beta1":0.9,"beta2":0.999,"epsilon":1e-8}}