{"type":"NeuralNetwork","sizes":[5,10,5,1],"layers":[{"weights":[],"biases":[]},{"weights":[[4.317404270172119,2.471769332885742,4.359716892242432,-4.868940830230713,-1.1530168056488037],[-4.551805019378662,-2.9171085357666016,-4.489923000335693,3.9660234451293945,0.31624630093574524],[-6.926577091217041,-4.400032997131348,-7.205225467681885,7.0303955078125,1.0740476846694946],[-14.928218841552734,-9.065131187438965,-15.666924476623535,15.654565811157227,3.495237112045288],[-3.5439274311065674,-2.363114356994629,-3.569859743118286,3.129288673400879,0.24148787558078766],[-10.47465705871582,-6.444903373718262,-10.712821960449219,10.678001403808594,2.046837091445923],[7.998231887817383,4.539837837219238,8.153748512268066,-8.497133255004883,-2.6415741443634033],[-6.393527984619141,-4.041248798370361,-6.73757791519165,6.299406051635742,1.1425451040267944],[8.628552436828613,5.016531944274902,9.124431610107422,-9.186702728271484,-2.8524417877197266],[0.2761424779891968,-0.16781869530677795,-0.10638736188411713,-1.2242052555084229,-0.39784204959869385]],"biases":[-1.9150983095169067,1.138624906539917,1.878865361213684,4.731339454650879,0.4861500561237335,3.2291371822357178,-2.456578254699707,1.7776466608047485,-2.7904038429260254,-0.9135585427284241]},{"weights":[[0.15937964618206024,-0.7953635454177856,-0.8170886635780334,-1.6106176376342773,-0.6624438166618347,-0.9152047634124756,0.2375110685825348,-0.9022419452667236,0.23975270986557007,-0.2461368888616562],[-0.49194714426994324,-0.36666572093963623,-0.34093955159187317,-0.7928231954574585,-0.4971066415309906,-0.39210212230682373,-0.4638306498527527,-0.4097026288509369,-0.19664901494979858,-0.45154979825019836],[2.4095845222473145,-2.8071227073669434,-3.9779560565948486,-7.273486137390137,-2.3095030784606934,-5.480072021484375,4.016203880310059,-3.661590099334717,4.2553911209106445,0.5129868984222412],[1.5900717973709106,-1.7161973714828491,-2.308746814727783,-4.4375505447387695,-1.3873850107192993,-3.190131664276123,2.322979688644409,-2.2303929328918457,2.384565591812134,0.3742462694644928],[-1.0664790868759155,0.579401969909668,1.204971194267273,2.4230525493621826,0.6275790333747864,1.7060896158218384,-1.2967784404754639,1.1044234037399292,-1.6711949110031128,-0.1727725863456726]],"biases":[-0.3476400077342987,-0.6392226219177246,2.163951873779297,1.3972655534744263,-0.9780861139297485]},{"weights":[[1.4775861501693726,0.38891908526420593,8.5831298828125,4.343771457672119,-2.8793323040008545]],"biases":[-4.1726508140563965]}],"inputLookup":{"heartRate":0,"bloodPressureSystolic":1,"bloodPressureDiastolic":2,"oxygenSaturation":3,"temperature":4},"inputLookupLength":5,"outputLookup":{"highRisk":0},"outputLookupLength":1,"options":{"inputSize":0,"outputSize":0,"binaryThresh":0.5,"hiddenLayers":[10,5]},"trainOpts":{"activation":"sigmoid","iterations":20000,"errorThresh":0.005,"log":false,"logPeriod":10,"leakyReluAlpha":0.01,"learningRate":0.3,"momentum":0.1,"callbackPeriod":10,"timeout":"Infinity","beta1":0.9,"beta2":0.999,"epsilon":1e-8}}