{"type":"NeuralNetwork","sizes":[5,10,5,1],"layers":[{"weights":[],"biases":[]},{"weights":[[4.081005573272705,2.8058691024780273,4.250883102416992,-5.208376407623291,0.1344323754310608],[4.035724639892578,2.5474367141723633,3.7859082221984863,-5.051044464111328,0.3480052947998047],[5.676401615142822,3.838313102722168,5.848011493682861,-7.04090690612793,0.1566423922777176],[-0.47617512941360474,-0.4153422713279724,-0.3541819155216217,-1.1674962043762207,0.14407864212989807],[7.677821636199951,5.142014980316162,8.026429176330566,-9.109724998474121,0.10326793044805527],[13.716530799865723,9.137937545776367,13.925567626953125,-15.481574058532715,-0.5665223598480225],[0.6151083707809448,0.21815305948257446,0.6062771677970886,-1.9887348413467407,0.599031388759613],[10.00931453704834,6.550081253051758,10.231582641601562,-11.276601791381836,-0.5544599890708923],[1.912325143814087,1.260128378868103,1.7988961935043335,-3.2019028663635254,0.7345061302185059],[-0.5669835209846497,-0.6305427551269531,-0.8911634683609009,-0.6848681569099426,0.3090853691101074]],"biases":[-2.3868355751037598,-2.220815420150757,-2.7632906436920166,-0.8362799882888794,-3.5884952545166016,-5.6502814292907715,-1.3111577033996582,-4.302676200866699,-1.755185604095459,-0.7350860238075256]},{"weights":[[-1.3219168186187744,-1.4563087224960327,-1.793276071548462,0.12541362643241882,-2.25653076171875,-3.5672335624694824,-0.275118887424469,-2.890010118484497,-0.8074039220809937,0.182019904255867],[-1.4357695579528809,-1.1656010150909424,-1.5445713996887207,0.21642008423805237,-2.312619686126709,-3.371070384979248,-0.24012349545955658,-2.5408239364624023,-0.8023322224617004,0.3356056213378906],[-1.0527890920639038,-1.2185273170471191,-1.4100134372711182,-0.07713765650987625,-1.7956743240356445,-3.0885400772094727,-0.2955579459667206,-2.3778488636016846,-0.5644006133079529,0.33681732416152954],[-1.4567612409591675,-1.3813397884368896,-2.139248847961426,0.15021799504756927,-2.570664405822754,-4.405029296875,-0.4518338739871979,-3.247535228729248,-0.9738569855690002,0.44658929109573364],[-1.5536071062088013,-1.2782187461853027,-1.7903457880020142,0.047977495938539505,-2.1622560024261475,-3.7521896362304688,-0.525061309337616,-2.74064302444458,-0.6967927813529968,0.20614366233348846]],"biases":[3.3174703121185303,2.9810638427734375,2.528197765350342,4.067419052124023,3.337329864501953]},{"weights":[[-4.695062637329102,-4.38864803314209,-3.8792688846588135,-5.59091329574585,-4.711698532104492]],"biases":[5.615069389343262]}],"inputLookup":{"heartRate":0,"bloodPressureSystolic":1,"bloodPressureDiastolic":2,"oxygenSaturation":3,"temperature":4},"inputLookupLength":5,"outputLookup":{"highRisk":0},"outputLookupLength":1,"options":{"inputSize":0,"outputSize":0,"binaryThresh":0.5,"hiddenLayers":[10,5]},"trainOpts":{"activation":"sigmoid","iterations":20000,"errorThresh":0.005,"log":false,"logPeriod":10,"leakyReluAlpha":0.01,"learningRate":0.3,"momentum":0.1,"callbackPeriod":10,"timeout":"Infinity","beta1":0.9,"beta2":0.999,"epsilon":1e-8}}